{"learner":{"attributes":{"best_iteration":"11","best_score":"0.14230672972672062"},"feature_names":[],"feature_types":[],"gradient_booster":{"gbtree":{"model":{"gbtree_model_param":{"num_parallel_tree":"1","num_trees":"22"},"iteration_indptr":[0,1,2,3,4,5,6,7,8,9,10,11,12,13,14,15,16,17,18,19,20,21,22],"tree_info":[0,0,0,0,0,0,0,0,0,0,0,0,0,0,0,0,0,0,0,0,0,0],"trees":[{"base_weights":[-5.6893885E-8,3.1349316E-1,-5.9993684E-1,-6.787124E-1,6.4301926E-1,5.100434E-1,4.4724684E-2,-4.4020513E-1,5.808562E-1,-1.0586528E0,1.0014124E0,-1.6634857E-2,6.4301926E-1,-4.9872983E-1,-9.4098276E-1,-1.0641313E0,8.5636276E-1,7.220546E-1,3.741345E-1,1.0802865E-1,-1.4192122E-1,-5.1705277E-1,-1.2268732E0,-1.2509464E0,6.1674637E-1,-1.2744762E0,-2.637289E-1,4.9891022E-1,6.160946E-1,-3.9207256E-1,-3.7197652E-1,3.497502E-1,6.40186E-1,-3.5619974E-1,9.806561E-1,6.416639E-1,-2.1719883E-1,-6.619992E-1,-8.2583153E-1,3.5378486E-1,1.0109322E0,3.5799903E-1,6.3075446E-2,6.4069325E-1,7.880089E-1,-8.080647E-2,-2.9296458E-1,-7.7150774E-1,-6.2785757E-1,-8.169618E-2,-2.1719883E-1,6.3467115E-2,-1.5328339E-2,6.0742766E-2,-7.819794E-2,3.3874455E-1,4.91754E-1,2.086312E-1,1.704714E-1,-2.2684991E-1,-4.6707302E-1,-3.5619974E-1,-2.2194907E-1,4.7774547E-1,6.302065E-1],"categories":[],"categories_nodes":[],"categories_segments":[],"categories_sizes":[],"default_left":[0,0,0,0,0,0,0,0,0,0,0,0,0,0,0,0,0,0,0,0,0,0,0,0,0,0,0,0,0,0,0,0,0,0,0,0,0,0,0,0,0,0,0,0,0,0,0,0,0,0,0,0,0,0,0,0,0,0,0,0,0,0,0,0,0],"id":0,"left_children":[1,5,3,13,-1,7,11,9,17,25,43,19,-1,29,15,21,33,27,31,51,49,-1,23,37,-1,47,45,-1,39,59,-1,41,-1,-1,35,-1,-1,-1,-1,-1,63,57,-1,-1,55,-1,-1,-1,-1,-1,-1,-1,53,-1,-1,-1,-1,-1,-1,-1,61,-1,-1,-1,-1],"loss_changes":[2.8608057E2,5.277498E1,7.023653E1,2.353595E1,0E0,3.884059E1,2.7514069E1,3.5749588E1,1.5663574E1,4.7963486E0,2.226553E-1,6.233218E0,0E0,4.4642944E0,4.498262E1,5.3285675E0,2.4096804E0,4.6068115E0,3.8541737E0,3.0912638E-2,5.5648327E-2,0E0,5.461334E0,1.771225E0,0E0,1.6574478E-1,1.7811462E-1,0E0,4.6619415E-1,1.0593414E-2,0E0,4.1805077E-1,0E0,0E0,2.0443306E0,0E0,0E0,0E0,0E0,0E0,2.6404858E-3,1.1362076E-2,0E0,0E0,2.6520967E-2,0E0,0E0,0E0,0E0,0E0,0E0,0E0,2.9882062E-2,0E0,0E0,0E0,0E0,0E0,0E0,0E0,2.730751E-2,0E0,0E0,0E0,0E0],"parents":[2147483647,0,0,2,2,1,1,5,5,7,7,6,6,3,3,14,14,8,8,11,11,15,15,22,22,9,9,17,17,13,13,18,18,16,16,34,34,23,23,28,28,31,31,10,10,26,26,25,25,20,20,19,19,52,52,44,44,41,41,29,29,60,60,40,40],"right_children":[2,6,4,14,-1,8,12,10,18,26,44,20,-1,30,16,22,34,28,32,52,50,-1,24,38,-1,48,46,-1,40,60,-1,42,-1,-1,36,-1,-1,-1,-1,-1,64,58,-1,-1,56,-1,-1,-1,-1,-1,-1,-1,54,-1,-1,-1,-1,-1,-1,-1,62,-1,-1,-1,-1],"split_conditions":[1.203E1,1.018E1,2.5E0,1.377E1,6.4301926E-1,8.22E0,3E0,1.5E0,9.33E0,1.25E0,9.74E0,1.103E1,6.4301926E-1,1.306E1,2E0,1.581E1,1.432E1,8.49E0,3.25E0,1.066E1,1.196E1,-5.1705277E-1,1.5E0,1.6908E1,6.1674637E-1,7.5E-1,1E0,4.9891022E-1,3.5E0,1.2596E1,-3.7197652E-1,1.001E1,6.40186E-1,-3.5619974E-1,9.74E0,6.416639E-1,-2.1719883E-1,-6.619992E-1,-8.2583153E-1,3.5378486E-1,8.77E0,9.82E0,6.3075446E-2,6.4069325E-1,1E0,-8.080647E-2,-2.9296458E-1,-7.7150774E-1,-6.2785757E-1,-8.169618E-2,-2.1719883E-1,6.3467115E-2,9.74E0,6.0742766E-2,-7.819794E-2,3.3874455E-1,4.91754E-1,2.086312E-1,1.704714E-1,-2.2684991E-1,1.75E0,-3.5619974E-1,-2.2194907E-1,4.7774547E-1,6.302065E-1],"split_indices":[0,0,3,0,0,0,3,3,0,3,1,0,0,0,3,0,0,0,3,0,0,0,2,0,0,2,2,0,3,0,0,0,0,0,1,0,0,0,0,0,0,0,0,0,2,0,0,0,0,0,0,0,1,0,0,0,0,0,0,0,3,0,0,0,0],"split_type":[0,0,0,0,0,0,0,0,0,0,0,0,0,0,0,0,0,0,0,0,0,0,0,0,0,0,0,0,0,0,0,0,0,0,0,0,0,0,0,0,0,0,0,0,0,0,0,0,0,0,0,0,0,0,0,0,0,0,0,0,0,0,0,0,0],"sum_hessian":[1.521E3,9.99E2,5.22E2,4.99E2,2.3E1,5.77E2,4.22E2,4E1,5.37E2,2.8E1,1.2E1,3.99E2,2.3E1,2.96E2,2.03E2,1.9E2,1.3E1,3.19E2,2.18E2,2E2,1.99E2,9.2E1,9.8E1,9.7E1,1E0,2.2E1,6E0,1.39E2,1.8E2,1.69E2,1.27E2,2.11E2,7E0,1E0,1.2E1,1.1E1,1E0,5.9E1,3.8E1,1.77E2,3E0,2.04E2,7E0,8E0,4E0,4E0,2E0,1.7E1,5E0,1.98E2,1E0,1.98E2,2E0,1E0,1E0,1E0,3E0,2E2,4E0,1.66E2,3E0,1E0,2E0,1E0,2E0],"tree_param":{"num_deleted":"0","num_feature":"4","num_nodes":"65","size_leaf_vector":"1"}},{"base_weights":[3.741212E-5,1.315609E-1,-2.5166097E-1,-2.8474966E-1,2.7028555E-1,2.1402982E-1,1.8790465E-2,-1.8487658E-1,2.4375649E-1,-4.466243E-1,4.2525628E-1,-7.001737E-3,2.7028555E-1,-2.0925236E-1,-3.9476407E-1,-4.4642544E-1,3.592283E-1,3.0297026E-1,1.5706435E-1,2.6614703E-2,-5.9039284E-2,-2.1690166E-1,-5.147195E-1,-5.25099E-1,2.7383313E-1,-5.3711003E-1,-1.13320366E-1,2.0924348E-1,2.5863826E-1,-1.6457514E-1,-1.560138E-1,1.4671408E-1,2.7072784E-1,-1.581514E-1,4.126736E-1,2.7049887E-1,-9.64355E-2,-2.7781016E-1,-3.4676278E-1,1.4836363E-1,2.5556168E-1,-3.578403E-1,-2.7905568E-1,1.5016139E-1,2.6673889E-2,2.7064982E-1,3.3950475E-1,-3.4392435E-2,-1.2652439E-1,-5.8467116E-2,-9.64355E-2,-6.791046E-3,-3.4258876E-2,2.6969517E-2,-3.4719598E-2,-9.513416E-2,-2.0427802E-1,-1.581514E-1,-9.58544E-2,1.5040132E-1,2.1033162E-1,8.748824E-2,7.255518E-2],"categories":[],"categories_nodes":[],"categories_segments":[],"categories_sizes":[],"default_left":[0,0,0,0,0,0,0,0,0,0,0,0,0,0,0,0,0,0,0,0,0,0,0,0,0,0,0,0,0,0,0,0,0,0,0,0,0,0,0,0,0,0,0,0,0,0,0,0,0,0,0,0,0,0,0,0,0,0,0,0,0,0,0],"id":1,"left_children":[1,5,3,13,-1,7,11,9,17,25,45,19,-1,29,15,21,33,27,31,-1,49,-1,23,37,-1,41,47,-1,39,55,-1,43,-1,-1,35,-1,-1,-1,-1,-1,-1,-1,-1,61,-1,-1,59,-1,-1,51,-1,53,-1,-1,-1,-1,57,-1,-1,-1,-1,-1,-1],"loss_changes":[5.035451E1,9.290976E0,1.23918915E1,4.141247E0,0E0,6.8447E0,4.8614974E0,6.4036193E0,2.7547035E0,8.4305525E-1,3.499365E-2,1.0970924E0,0E0,7.8330326E-1,7.9162064E0,9.383583E-1,4.4530356E-1,8.063507E-1,6.944494E-1,0E0,1.1863947E-2,0E0,1.0146561E0,3.137741E-1,0E0,8.5395336E-2,3.359461E-2,0E0,9.895897E-2,3.6735535E-3,0E0,7.300806E-2,0E0,0E0,3.7340498E-1,0E0,0E0,0E0,0E0,0E0,0E0,0E0,0E0,1.6002655E-3,0E0,0E0,3.163427E-3,0E0,0E0,5.3547025E-3,0E0,5.8911326E-3,0E0,0E0,0E0,0E0,6.0994774E-3,0E0,0E0,0E0,0E0,0E0,0E0],"parents":[2147483647,0,0,2,2,1,1,5,5,7,7,6,6,3,3,14,14,8,8,11,11,15,15,22,22,9,9,17,17,13,13,18,18,16,16,34,34,23,23,28,28,25,25,31,31,10,10,26,26,20,20,49,49,51,51,29,29,56,56,46,46,43,43],"right_children":[2,6,4,14,-1,8,12,10,18,26,46,20,-1,30,16,22,34,28,32,-1,50,-1,24,38,-1,42,48,-1,40,56,-1,44,-1,-1,36,-1,-1,-1,-1,-1,-1,-1,-1,62,-1,-1,60,-1,-1,52,-1,54,-1,-1,-1,-1,58,-1,-1,-1,-1,-1,-1],"split_conditions":[1.203E1,1.018E1,2.5E0,1.377E1,2.7028555E-1,8.22E0,3E0,1.5E0,9.33E0,1.25E0,9.74E0,1.066E1,2.7028555E-1,1.306E1,2E0,1.581E1,1.432E1,8.49E0,3.25E0,2.6614703E-2,1.196E1,-2.1690166E-1,1.5E0,1.6908E1,2.7383313E-1,1E0,1E0,2.0924348E-1,3.5E0,1.2596E1,-1.560138E-1,1.001E1,2.7072784E-1,-1.581514E-1,9.74E0,2.7049887E-1,-9.64355E-2,-2.7781016E-1,-3.4676278E-1,1.4836363E-1,2.5556168E-1,-3.578403E-1,-2.7905568E-1,9.82E0,2.6673889E-2,2.7064982E-1,1E0,-3.4392435E-2,-1.2652439E-1,1.103E1,-9.64355E-2,9.74E0,-3.4258876E-2,2.6969517E-2,-3.4719598E-2,-9.513416E-2,1.75E0,-1.581514E-1,-9.58544E-2,1.5040132E-1,2.1033162E-1,8.748824E-2,7.255518E-2],"split_indices":[0,0,3,0,0,0,3,3,0,3,1,0,0,0,3,0,0,0,3,0,0,0,2,0,0,3,2,0,3,0,0,0,0,0,1,0,0,0,0,0,0,0,0,0,0,0,2,0,0,0,0,1,0,0,0,0,3,0,0,0,0,0,0],"split_type":[0,0,0,0,0,0,0,0,0,0,0,0,0,0,0,0,0,0,0,0,0,0,0,0,0,0,0,0,0,0,0,0,0,0,0,0,0,0,0,0,0,0,0,0,0,0,0,0,0,0,0,0,0,0,0,0,0,0,0,0,0,0,0],"sum_hessian":[1.521E3,9.99E2,5.22E2,4.99E2,2.3E1,5.77E2,4.22E2,4E1,5.37E2,2.8E1,1.2E1,3.99E2,2.3E1,2.96E2,2.03E2,1.9E2,1.3E1,3.19E2,2.18E2,1.98E2,2.01E2,9.2E1,9.8E1,9.7E1,1E0,2.2E1,6E0,1.39E2,1.8E2,1.69E2,1.27E2,2.11E2,7E0,1E0,1.2E1,1.1E1,1E0,5.9E1,3.8E1,1.77E2,3E0,9E0,1.3E1,2.04E2,7E0,8E0,4E0,4E0,2E0,2E2,1E0,2E0,1.98E2,1E0,1E0,1.66E2,3E0,1E0,2E0,1E0,3E0,2E2,4E0],"tree_param":{"num_deleted":"0","num_feature":"4","num_nodes":"63","size_leaf_vector":"1"}},{"base_weights":[2.376913E-5,5.5199865E-2,-1.05567455E-1,-1.1946603E-1,1.1361131E-1,8.979461E-2,7.8939E-3,-7.7688284E-2,1.0227557E-1,-1.8850286E-1,1.806153E-1,-2.9477219E-3,1.1361131E-1,-8.7798044E-2,-1.6561234E-1,-1.8728143E-1,1.506435E-1,1.2709549E-1,6.593771E-2,1.1160778E-2,-2.4781028E-2,-9.098934E-2,-2.1593753E-1,-2.2041652E-1,1.2158098E-1,-2.2645363E-1,-4.8697364E-2,8.775689E-2,1.08525224E-1,-3.989642E-2,-1.121602E-1,6.154452E-2,1.1448795E-1,-7.021866E-2,1.7364053E-1,1.1403121E-1,-4.2816993E-2,-1.1751444E-1,-1.4914908E-1,6.2279508E-2,1.2698019E-1,-1.5103613E-1,-2.0237787E-1,6.298507E-2,1.1280161E-2,-1.4637982E-2,-5.4642778E-2,1.1433126E-1,1.4630839E-1,-6.549719E-2,-4.139726E-2,-2.4519678E-2,-4.2816993E-2,-1.242502E-1,-1.0578949E-1,-3.0003863E-3,-1.4366329E-2,1.1974417E-2,-1.5415317E-2,3.73267E-2,3.4763705E-2,6.677763E-2,8.996241E-2],"categories":[],"categories_nodes":[],"categories_segments":[],"categories_sizes":[],"default_left":[0,0,0,0,0,0,0,0,0,0,0,0,0,0,0,0,0,0,0,0,0,0,0,0,0,0,0,0,0,0,0,0,0,0,0,0,0,0,0,0,0,0,0,0,0,0,0,0,0,0,0,0,0,0,0,0,0,0,0,0,0,0,0],"id":2,"left_children":[1,5,3,13,-1,7,11,9,17,25,47,19,-1,29,15,21,33,27,31,-1,51,-1,23,37,-1,41,45,-1,39,-1,49,43,-1,-1,35,-1,-1,-1,-1,-1,-1,-1,53,59,-1,-1,-1,-1,61,-1,-1,55,-1,-1,-1,57,-1,-1,-1,-1,-1,-1,-1],"loss_changes":[8.862032E0,1.634937E0,2.1863322E0,7.2862196E-1,0E0,1.2065792E0,8.5898983E-1,1.1477458E0,4.8397827E-1,1.4829046E-1,5.4087043E-3,1.9312826E-1,0E0,1.374309E-1,1.3927193E0,1.6520119E-1,8.23988E-2,1.4147854E-1,1.251123E-1,0E0,2.4856552E-3,0E0,1.8881273E-1,6.1504364E-2,0E0,1.5462875E-2,6.333193E-3,0E0,2.4549246E-2,0E0,2.8924942E-3,1.2747049E-2,0E0,0E0,6.828144E-2,0E0,0E0,0E0,0E0,0E0,0E0,0E0,1.2913346E-3,6.417036E-4,0E0,0E0,0E0,0E0,2.8003007E-4,0E0,0E0,9.266138E-4,0E0,0E0,0E0,1.1615157E-3,0E0,0E0,0E0,0E0,0E0,0E0,0E0],"parents":[2147483647,0,0,2,2,1,1,5,5,7,7,6,6,3,3,14,14,8,8,11,11,15,15,22,22,9,9,17,17,13,13,18,18,16,16,34,34,23,23,28,28,25,25,31,31,26,26,10,10,30,30,20,20,42,42,51,51,55,55,43,43,48,48],"right_children":[2,6,4,14,-1,8,12,10,18,26,48,20,-1,30,16,22,34,28,32,-1,52,-1,24,38,-1,42,46,-1,40,-1,50,44,-1,-1,36,-1,-1,-1,-1,-1,-1,-1,54,60,-1,-1,-1,-1,62,-1,-1,56,-1,-1,-1,58,-1,-1,-1,-1,-1,-1,-1],"split_conditions":[1.203E1,1.018E1,2.5E0,1.377E1,1.1361131E-1,8.22E0,3E0,1.5E0,9.33E0,1.25E0,9.74E0,1.066E1,1.1361131E-1,1.2596E1,2E0,1.581E1,1.432E1,8.49E0,3.25E0,1.1160778E-2,1.196E1,-9.098934E-2,1.5E0,1.696E1,1.2158098E-1,1E0,1E0,8.775689E-2,3.25E0,-3.989642E-2,2.25E0,1.001E1,1.1448795E-1,-7.021866E-2,9.74E0,1.1403121E-1,-4.2816993E-2,-1.1751444E-1,-1.4914908E-1,6.2279508E-2,1.2698019E-1,-1.5103613E-1,7.5E-1,1.475E1,1.1280161E-2,-1.4637982E-2,-5.4642778E-2,1.1433126E-1,1E0,-6.549719E-2,-4.139726E-2,1.103E1,-4.2816993E-2,-1.242502E-1,-1.0578949E-1,9.74E0,-1.4366329E-2,1.1974417E-2,-1.5415317E-2,3.73267E-2,3.4763705E-2,6.677763E-2,8.996241E-2],"split_indices":[0,0,3,0,0,0,3,3,0,3,1,0,0,0,3,0,0,0,3,0,0,0,2,0,0,3,2,0,2,0,3,0,0,0,1,0,0,0,0,0,0,0,2,1,0,0,0,0,2,0,0,0,0,0,0,1,0,0,0,0,0,0,0],"split_type":[0,0,0,0,0,0,0,0,0,0,0,0,0,0,0,0,0,0,0,0,0,0,0,0,0,0,0,0,0,0,0,0,0,0,0,0,0,0,0,0,0,0,0,0,0,0,0,0,0,0,0,0,0,0,0,0,0,0,0,0,0,0,0],"sum_hessian":[1.521E3,9.99E2,5.22E2,4.99E2,2.3E1,5.77E2,4.22E2,4E1,5.37E2,2.8E1,1.2E1,3.99E2,2.3E1,2.96E2,2.03E2,1.9E2,1.3E1,3.19E2,2.18E2,1.98E2,2.01E2,9.2E1,9.8E1,9.7E1,1E0,2.2E1,6E0,1.39E2,1.8E2,1.66E2,1.3E2,2.11E2,7E0,1E0,1.2E1,1.1E1,1E0,6.5E1,3.2E1,1.78E2,2E0,9E0,1.3E1,2.04E2,7E0,4E0,2E0,8E0,4E0,1.28E2,2E0,2E2,1E0,8E0,5E0,2E0,1.98E2,1E0,1E0,1.44E2,6E1,1E0,3E0],"tree_param":{"num_deleted":"0","num_feature":"4","num_nodes":"63","size_leaf_vector":"1"}},{"base_weights":[1.2625464E-5,2.3156766E-2,-4.4278562E-2,-5.0116334E-2,4.775522E-2,3.7666265E-2,3.315939E-3,-3.276842E-2,4.291518E-2,-7.974343E-2,7.6724924E-2,-1.2412596E-3,4.775522E-2,-3.6828533E-2,-6.947905E-2,-7.856666E-2,6.3150465E-2,5.3319246E-2,2.7682848E-2,4.6801805E-3,-1.0402111E-2,-3.8169663E-2,-9.059014E-2,-9.252464E-2,5.3981457E-2,-9.570604E-2,-2.093077E-2,3.6805335E-2,4.554246E-2,-1.6731353E-2,-4.7056127E-2,-7.581864E-2,-4.9973242E-2,2.5818178E-2,4.8415784E-2,-3.1176891E-2,7.30535E-2,4.807078E-2,-1.9010652E-2,2.6117578E-2,5.4839727E-2,-6.374886E-2,-8.56282E-2,2.6606617E-2,1.1428497E-2,2.0082228E-2,-2.897391E-2,-6.2301653E-3,-2.3598947E-2,4.829727E-2,3.6629893E-2,-5.972167E-3,-1.9010652E-2,-2.7470654E-2,-1.7878428E-2,1.5012238E-2,1.6492767E-2,-5.248735E-2,-4.489134E-2],"categories":[],"categories_nodes":[],"categories_segments":[],"categories_sizes":[],"default_left":[0,0,0,0,0,0,0,0,0,0,0,0,0,0,0,0,0,0,0,0,0,0,0,0,0,0,0,0,0,0,0,0,0,0,0,0,0,0,0,0,0,0,0,0,0,0,0,0,0,0,0,0,0,0,0,0,0,0,0],"id":3,"left_children":[1,5,3,13,-1,7,11,9,17,25,49,19,-1,29,15,21,35,27,33,-1,51,-1,23,31,-1,41,47,-1,39,-1,53,-1,-1,43,-1,-1,37,-1,-1,-1,-1,-1,57,55,45,-1,-1,-1,-1,-1,-1,-1,-1,-1,-1,-1,-1,-1,-1],"loss_changes":[1.5592394E0,2.8759766E-1,3.857119E-1,1.2827837E-1,0E0,2.1339995E-1,1.517785E-1,2.0624012E-1,8.5039735E-2,2.623275E-2,8.164868E-4,3.3999477E-2,0E0,2.4219722E-2,2.4494874E-1,2.907896E-2,1.5268166E-2,2.4806976E-2,2.2536486E-2,0E0,5.177725E-4,0E0,3.519404E-2,2.3398042E-2,0E0,2.6934743E-3,1.1929478E-3,0E0,4.846275E-3,0E0,4.452169E-4,0E0,0E0,2.3787767E-3,0E0,0E0,1.25019625E-2,0E0,0E0,0E0,0E0,0E0,1.9541383E-4,2.360493E-4,1.5752913E-2,0E0,0E0,0E0,0E0,0E0,0E0,0E0,0E0,0E0,0E0,0E0,0E0,0E0,0E0],"parents":[2147483647,0,0,2,2,1,1,5,5,7,7,6,6,3,3,14,14,8,8,11,11,15,15,22,22,9,9,17,17,13,13,23,23,18,18,16,16,36,36,28,28,25,25,33,33,44,44,26,26,10,10,20,20,30,30,43,43,42,42],"right_children":[2,6,4,14,-1,8,12,10,18,26,50,20,-1,30,16,22,36,28,34,-1,52,-1,24,32,-1,42,48,-1,40,-1,54,-1,-1,44,-1,-1,38,-1,-1,-1,-1,-1,58,56,46,-1,-1,-1,-1,-1,-1,-1,-1,-1,-1,-1,-1,-1,-1],"split_conditions":[1.203E1,1.018E1,2.5E0,1.377E1,4.775522E-2,8.22E0,3E0,1.5E0,9.33E0,1.25E0,9.74E0,1.066E1,4.775522E-2,1.2596E1,2E0,1.581E1,1.432E1,8.49E0,3.25E0,4.6801805E-3,1.196E1,-3.8169663E-2,1.5E0,1E0,5.3981457E-2,1E0,1E0,3.6805335E-2,3.25E0,-1.6731353E-2,2.25E0,-7.581864E-2,-4.9973242E-2,9.82E0,4.8415784E-2,-3.1176891E-2,9.74E0,4.807078E-2,-1.9010652E-2,2.6117578E-2,5.4839727E-2,-6.374886E-2,7.5E-1,1.475E1,1.307E1,2.0082228E-2,-2.897391E-2,-6.2301653E-3,-2.3598947E-2,4.829727E-2,3.6629893E-2,-5.972167E-3,-1.9010652E-2,-2.7470654E-2,-1.7878428E-2,1.5012238E-2,1.6492767E-2,-5.248735E-2,-4.489134E-2],"split_indices":[0,0,3,0,0,0,3,3,0,3,1,0,0,0,3,0,0,0,3,0,0,0,2,3,0,3,2,0,2,0,3,0,0,0,0,0,1,0,0,0,0,0,2,1,1,0,0,0,0,0,0,0,0,0,0,0,0,0,0],"split_type":[0,0,0,0,0,0,0,0,0,0,0,0,0,0,0,0,0,0,0,0,0,0,0,0,0,0,0,0,0,0,0,0,0,0,0,0,0,0,0,0,0,0,0,0,0,0,0,0,0,0,0,0,0,0,0,0,0,0,0],"sum_hessian":[1.521E3,9.99E2,5.22E2,4.99E2,2.3E1,5.77E2,4.22E2,4E1,5.37E2,2.8E1,1.2E1,3.99E2,2.3E1,2.96E2,2.03E2,1.9E2,1.3E1,3.19E2,2.18E2,1.98E2,2.01E2,9.2E1,9.8E1,9.7E1,1E0,2.2E1,6E0,1.39E2,1.8E2,1.66E2,1.3E2,1.4E1,8.3E1,2.11E2,7E0,1E0,1.2E1,1.1E1,1E0,1.78E2,2E0,9E0,1.3E1,2E2,1.1E1,8E0,3E0,4E0,2E0,8E0,4E0,2E2,1E0,1.28E2,2E0,1.41E2,5.9E1,8E0,5E0],"tree_param":{"num_deleted":"0","num_feature":"4","num_nodes":"59","size_leaf_vector":"1"}},{"base_weights":[4.7304507E-6,9.712627E-3,-1.8573314E-2,-2.1025432E-2,2.0073328E-2,1.5906896E-2,1.3799773E-3,-1.3856579E-2,1.8141627E-2,-3.3737604E-2,1.8864581E-2,-6.0683547E-4,2.0095618E-2,-1.5448704E-2,-2.9151572E-2,-3.2962285E-2,2.646164E-2,-3.666834E-2,-1.23607265E-2,-2.9488482E-2,-3.1503394E-1,2.2368854E-2,1.1836696E-2,3.1668704E-3,-2.5882772E-3,-2.0913109E-1,-1.5279897E-1,-4.0450014E-2,-8.999687E-3,1.5385653E-2,1.901334E-2,-7.016693E-3,-1.1466134E-2,1.1154672E-2,2.045215E-2,-1.4340491E-2,2.3967529E-2,-1.3842474E-2,3.0730132E-2,3.945576E-3,-1.1000909E-2,2.0264717E-2,-8.440722E-3,-1.088113E-2,-1.7734105E-2,1.0891154E-2,2.368401E-2,-6.7475517E-3,1.9697056E-3,-2.6906934E-2,-2.1042846E-2,1.0662378E-2,1.3569812E-2,6.28886E-3,3.3428654E-2,6.5184776E-3,-2.8550655E-3,-2.6516807E-3,-1.0191834E-2],"categories":[],"categories_nodes":[],"categories_segments":[],"categories_sizes":[],"default_left":[0,0,0,0,0,0,0,0,0,0,0,0,0,0,0,0,0,0,0,0,0,0,0,0,0,0,0,0,0,0,0,0,0,0,0,0,0,0,0,0,0,0,0,0,0,0,0,0,0,0,0,0,0,0,0,0,0,0,0],"id":4,"left_children":[1,5,3,13,-1,7,11,9,21,27,-1,23,-1,31,15,17,37,19,35,43,25,29,33,47,-1,-1,-1,49,57,-1,45,-1,-1,51,-1,39,-1,-1,41,-1,-1,-1,-1,-1,-1,-1,-1,-1,-1,-1,-1,55,53,-1,-1,-1,-1,-1,-1],"loss_changes":[2.7433363E-1,5.156345E-2,6.805146E-2,2.2592843E-2,0E0,3.8126558E-2,2.8123215E-2,3.693965E-2,1.4193252E-2,4.637927E-3,0E0,5.8414233E-3,0E0,4.2679906E-3,4.3069676E-2,1.4487147E-2,2.8335145E-3,3.2143503E-1,3.1086155E-3,1.7386377E-3,5.2082837E-3,4.388213E-3,3.3927802E-3,6.755043E-4,0E0,0E0,0E0,4.6736374E-4,2.2435084E-4,0E0,9.623021E-4,0E0,0E0,2.3959577E-4,0E0,2.7333512E-3,0E0,0E0,2.2926284E-3,0E0,0E0,0E0,0E0,0E0,0E0,0E0,0E0,0E0,0E0,0E0,0E0,1.5156027E-3,4.194809E-3,0E0,0E0,0E0,0E0,0E0,0E0],"parents":[2147483647,0,0,2,2,1,1,5,5,7,7,6,6,3,3,14,14,15,15,17,17,8,8,11,11,20,20,9,9,21,21,13,13,22,22,18,18,16,16,35,35,38,38,19,19,30,30,23,23,27,27,33,33,52,52,51,51,28,28],"right_children":[2,6,4,14,-1,8,12,10,22,28,-1,24,-1,32,16,18,38,20,36,44,26,30,34,48,-1,-1,-1,50,58,-1,46,-1,-1,52,-1,40,-1,-1,42,-1,-1,-1,-1,-1,-1,-1,-1,-1,-1,-1,-1,56,54,-1,-1,-1,-1,-1,-1],"split_conditions":[1.203E1,1.016E1,2.5E0,1.377E1,2.0073328E-2,8.22E0,3E0,1.5E0,9.33E0,1.25E0,1.8864581E-2,1.103E1,2.0095618E-2,1.2596E1,2E0,1.778E1,1.432E1,1.696E1,1.25E0,1E0,1E0,8.77E0,3.25E0,1.018E1,-2.5882772E-3,-2.0913109E-1,-1.5279897E-1,1E0,1E0,1.5385653E-2,3.25E0,-7.016693E-3,-1.1466134E-2,3E0,2.045215E-2,1E0,2.3967529E-2,-1.3842474E-2,9.74E0,3.945576E-3,-1.1000909E-2,2.0264717E-2,-8.440722E-3,-1.088113E-2,-1.7734105E-2,1.0891154E-2,2.368401E-2,-6.7475517E-3,1.9697056E-3,-2.6906934E-2,-2.1042846E-2,9.82E0,9.82E0,6.28886E-3,3.3428654E-2,6.5184776E-3,-2.8550655E-3,-2.6516807E-3,-1.0191834E-2],"split_indices":[0,0,3,0,0,0,3,3,0,3,0,0,0,0,3,0,0,0,2,3,3,0,3,0,0,0,0,3,2,0,2,0,0,3,0,3,0,0,1,0,0,0,0,0,0,0,0,0,0,0,0,0,0,0,0,0,0,0,0],"split_type":[0,0,0,0,0,0,0,0,0,0,0,0,0,0,0,0,0,0,0,0,0,0,0,0,0,0,0,0,0,0,0,0,0,0,0,0,0,0,0,0,0,0,0,0,0,0,0,0,0,0,0,0,0,0,0,0,0,0,0],"sum_hessian":[1.521E3,9.99E2,5.22E2,4.99E2,2.3E1,5.73E2,4.26E2,4E1,5.33E2,2.8E1,1.2E1,4.02E2,2.4E1,2.96E2,2.03E2,1.9E2,1.3E1,1.61E2,2.9E1,1.57E2,4E0,3.19E2,2.14E2,2.03E2,1.99E2,2E0,2E0,2.2E1,6E0,1.43E2,1.76E2,1.66E2,1.3E2,2.08E2,6E0,2.8E1,1E0,1E0,1.2E1,5E0,2.3E1,1.1E1,1E0,1.4E1,1.43E2,1.74E2,2E0,3E0,2E2,9E0,1.3E1,1.73E2,3.5E1,3.3E1,2E0,1.67E2,6E0,4E0,2E0],"tree_param":{"num_deleted":"0","num_feature":"4","num_nodes":"59","size_leaf_vector":"1"}},{"base_weights":[-6.5120325E-6,4.075509E-3,-7.81844E-3,-8.849742E-3,8.437536E-3,6.674136E-3,5.7971285E-4,-5.857131E-3,7.6150815E-3,-1.4243278E-2,1.3686347E-2,-7.2810487E-3,-1.5344036E-2,-1.8227922E-2,1.2798848E-2,-2.3914479E-2,-6.0218717E-3,-1.5801061E-2,-1.3606308E-1,-2.5526815E-4,8.446035E-3,9.3845185E-3,4.9758046E-3,-2.9426152E-3,-8.837178E-3,-9.305844E-3,9.055539E-3,-6.0758142E-5,-1.0069325E-2,7.7028805E-4,-1.0853837E-3,-9.031864E-2,-6.599015E-2,-9.90565E-3,-2.2491908E-3,6.503285E-3,7.981844E-3,4.6753446E-3,1.5271507E-2,2.9928372E-3,2.2767818E-2,-5.0713653E-3,8.525239E-3,1.6742833E-3,-4.6241237E-3,8.847936E-3,-3.7476444E-3,4.4722976E-3,8.62696E-3,2.7192296E-3,-3.4469147E-3,4.523119E-3,1.1106355E-2,-1.2070728E-3,8.477965E-3,-4.8647164E-3,-6.0795886E-3,8.973857E-3,2.724399E-3],"categories":[],"categories_nodes":[],"categories_segments":[],"categories_sizes":[],"default_left":[0,0,0,0,0,0,0,0,0,0,0,0,0,0,0,0,0,0,0,0,0,0,0,0,0,0,0,0,0,0,0,0,0,0,0,0,0,0,0,0,0,0,0,0,0,0,0,0,0,0,0,0,0,0,0,0,0,0,0],"id":5,"left_children":[1,5,3,11,-1,7,19,9,21,33,57,23,13,15,45,17,43,27,31,29,-1,35,37,-1,25,55,53,-1,-1,-1,-1,-1,-1,-1,-1,-1,51,47,39,41,-1,-1,-1,-1,-1,-1,-1,49,-1,-1,-1,-1,-1,-1,-1,-1,-1,-1,-1],"loss_changes":[4.8505384E-2,9.075027E-3,1.2036316E-2,5.077839E-3,0E0,6.7589898E-3,4.9680285E-3,6.571802E-3,2.4864804E-3,8.138628E-4,1.8690038E-4,1.382675E-3,7.886916E-3,6.103169E-3,4.289475E-4,5.4531015E-2,4.8576354E-4,1.350522E-3,9.630695E-4,1.026127E-3,0E0,8.0627017E-4,6.5787276E-4,0E0,1.9831695E-3,2.4361163E-4,3.74996E-4,0E0,0E0,0E0,0E0,0E0,0E0,0E0,0E0,0E0,3.8086157E-4,4.2596646E-4,1.7685753E-3,5.602024E-4,0E0,0E0,0E0,0E0,0E0,0E0,0E0,4.4645695E-4,0E0,0E0,0E0,0E0,0E0,0E0,0E0,0E0,0E0,0E0,0E0],"parents":[2147483647,0,0,2,2,1,1,5,5,7,7,3,3,12,12,13,13,15,15,6,6,8,8,11,11,24,24,17,17,19,19,18,18,9,9,21,21,22,22,38,38,39,39,16,16,14,14,37,37,47,47,36,36,26,26,25,25,10,10],"right_children":[2,6,4,12,-1,8,20,10,22,34,58,24,14,16,46,18,44,28,32,30,-1,36,38,-1,26,56,54,-1,-1,-1,-1,-1,-1,-1,-1,-1,52,48,40,42,-1,-1,-1,-1,-1,-1,-1,50,-1,-1,-1,-1,-1,-1,-1,-1,-1,-1,-1],"split_conditions":[1.203E1,1.016E1,2.5E0,1.628E1,8.437536E-3,8.22E0,3E0,1.5E0,9.33E0,1.25E0,2.75E0,1.2596E1,1.75E0,1.778E1,9.74E0,1.696E1,1E0,1E0,1E0,1.103E1,8.446035E-3,8.49E0,1.001E1,-2.9426152E-3,2.25E0,1.377E1,1.306E1,-6.0758142E-5,-1.0069325E-2,7.7028805E-4,-1.0853837E-3,-9.031864E-2,-6.599015E-2,-9.90565E-3,-2.2491908E-3,6.503285E-3,3.5E0,3.25E0,9.74E0,1E0,2.2767818E-2,-5.0713653E-3,8.525239E-3,1.6742833E-3,-4.6241237E-3,8.847936E-3,-3.7476444E-3,9.82E0,8.62696E-3,2.7192296E-3,-3.4469147E-3,4.523119E-3,1.1106355E-2,-1.2070728E-3,8.477965E-3,-4.8647164E-3,-6.0795886E-3,8.973857E-3,2.724399E-3],"split_indices":[0,0,3,0,0,0,3,3,0,3,3,0,3,0,1,0,3,3,3,0,0,0,0,0,3,0,0,0,0,0,0,0,0,0,0,0,3,3,1,2,0,0,0,0,0,0,0,0,0,0,0,0,0,0,0,0,0,0,0],"split_type":[0,0,0,0,0,0,0,0,0,0,0,0,0,0,0,0,0,0,0,0,0,0,0,0,0,0,0,0,0,0,0,0,0,0,0,0,0,0,0,0,0,0,0,0,0,0,0,0,0,0,0,0,0,0,0,0,0,0,0],"sum_hessian":[1.521E3,9.99E2,5.22E2,4.99E2,2.3E1,5.73E2,4.26E2,4E1,5.33E2,2.8E1,1.2E1,4.02E2,9.7E1,8.8E1,9E0,6E1,2.8E1,5.6E1,4E0,4.02E2,2.4E1,3.19E2,2.14E2,1.66E2,2.36E2,2.3E2,6E0,5E0,5.1E1,2.03E2,1.99E2,2E0,2E0,2.2E1,6E0,1.39E2,1.8E2,2.08E2,6E0,4E0,2E0,2E0,2E0,5E0,2.3E1,8E0,1E0,2.04E2,4E0,2E2,4E0,1.77E2,3E0,2E0,4E0,1.28E2,1.02E2,1E1,2E0],"tree_param":{"num_deleted":"0","num_feature":"4","num_nodes":"59","size_leaf_vector":"1"}},{"base_weights":[-5.603451E-6,1.7115168E-3,-3.2917855E-3,-3.7255879E-3,3.5465616E-3,2.802493E-3,2.4381008E-4,-3.1945112E-3,-9.207386E-3,-3.0113675E-2,-1.3348566E-3,-4.2181455E-2,-1.2984637E-2,-1.1330599E-2,-3.413272E-2,-2.4550797E-3,3.1973314E-3,-5.9913816E-3,3.358933E-3,-6.2167834E-5,3.5498298E-3,-1.304439E-2,8.0241176E-4,2.2868058E-3,1.2157253E-3,-1.4682385E-3,4.030502E-3,-1.2340775E-3,-3.8083128E-3,-2.3680702E-3,2.6338096E-3,-5.6320373E-3,-2.4477341E-3],"categories":[],"categories_nodes":[],"categories_segments":[],"categories_sizes":[],"default_left":[0,0,0,0,0,0,0,0,0,0,0,0,0,0,0,0,0,0,0,0,0,0,0,0,0,0,0,0,0,0,0,0,0],"id":6,"left_children":[1,5,3,7,-1,15,19,27,9,11,25,13,21,-1,-1,17,23,31,-1,-1,-1,-1,-1,-1,-1,-1,-1,-1,29,-1,-1,-1,-1],"loss_changes":[8.583241E-3,1.5995081E-3,2.1292595E-3,1.4508641E-3,0E0,1.1899681E-3,8.775389E-4,2.980833E-4,7.2455984E-3,2.4623275E-3,3.1691862E-4,2.5941255E-3,6.8921206E-4,0E0,0E0,1.1682091E-3,4.3488014E-4,1.8209463E-4,0E0,0E0,0E0,0E0,0E0,0E0,0E0,0E0,0E0,0E0,6.4962497E-4,0E0,0E0,0E0,0E0],"parents":[2147483647,0,0,2,2,1,1,3,3,8,8,9,9,11,11,5,5,15,15,6,6,12,12,16,16,10,10,7,7,28,28,17,17],"right_children":[2,6,4,8,-1,16,20,28,10,12,26,14,22,-1,-1,18,24,32,-1,-1,-1,-1,-1,-1,-1,-1,-1,-1,30,-1,-1,-1,-1],"split_conditions":[1.203E1,1.016E1,2.5E0,1.6908E1,3.5465616E-3,8.22E0,3E0,1.2596E1,1.778E1,1.25E0,1.5E0,1.696E1,1.696E1,-1.1330599E-2,-3.413272E-2,1.5E0,9.33E0,1E0,3.358933E-3,-6.2167834E-5,3.5498298E-3,-1.304439E-2,8.0241176E-4,2.2868058E-3,1.2157253E-3,-1.4682385E-3,4.030502E-3,-1.2340775E-3,2.25E0,-2.3680702E-3,2.6338096E-3,-5.6320373E-3,-2.4477341E-3],"split_indices":[0,0,3,0,0,0,3,0,0,3,3,0,0,0,0,3,0,3,0,0,0,0,0,0,0,0,0,0,3,0,0,0,0],"split_type":[0,0,0,0,0,0,0,0,0,0,0,0,0,0,0,0,0,0,0,0,0,0,0,0,0,0,0,0,0,0,0,0,0],"sum_hessian":[1.521E3,9.99E2,5.22E2,4.99E2,2.3E1,5.73E2,4.26E2,4.55E2,4.4E1,1.2E1,3.2E1,7E0,5E0,3E0,4E0,4E1,5.33E2,2.8E1,1.2E1,4.02E2,2.4E1,3E0,2E0,3.19E2,2.14E2,2.8E1,4E0,1.66E2,2.89E2,2.8E2,9E0,9E0,1.9E1],"tree_param":{"num_deleted":"0","num_feature":"4","num_nodes":"33","size_leaf_vector":"1"}},{"base_weights":[-3.8394246E-6,1.0533691E-3,-1.1404435E-3,-1.3038915E-3,1.4843007E-3,-6.556236E-4,-3.916428E-3,-1.2840272E-2,-3.2238924E-4,-2.3500225E-2,-9.182674E-3,-1.3582879E-3,-1.961478E-2,-6.9523035E-3,3.4648238E-4,4.4843165E-4,2.0598837E-3,9.437463E-4,6.0076695E-3,1.8166542E-3,1.570457E-2],"categories":[],"categories_nodes":[],"categories_segments":[],"categories_sizes":[],"default_left":[0,0,0,0,0,0,0,0,0,0,0,0,0,0,0,0,0,0,0,0,0],"id":7,"left_children":[1,15,3,5,-1,-1,7,9,-1,11,13,-1,-1,-1,-1,-1,17,-1,19,-1,-1],"loss_changes":[1.8277874E-3,2.2286223E-4,4.4293073E-4,3.205631E-4,0E0,0E0,1.3201198E-3,4.582284E-4,0E0,6.563681E-4,2.4751708E-4,0E0,0E0,0E0,0E0,0E0,2.945572E-4,0E0,1.0269589E-3,0E0,0E0],"parents":[2147483647,0,0,2,2,3,3,6,6,7,7,9,9,10,10,1,1,16,16,18,18],"right_children":[2,16,4,6,-1,-1,8,10,-1,12,14,-1,-1,-1,-1,-1,18,-1,20,-1,-1],"split_conditions":[1.103E1,3E0,2.75E0,1.6908E1,1.4843007E-3,-6.556236E-4,1.778E1,1E0,-3.2238924E-4,1.696E1,1.5E0,-1.3582879E-3,-1.961478E-2,-6.9523035E-3,3.4648238E-4,4.4843165E-4,9.82E0,9.437463E-4,9.74E0,1.8166542E-3,1.570457E-2],"split_indices":[0,3,3,0,0,0,0,3,0,0,3,0,0,0,0,0,0,0,1,0,0],"split_type":[0,0,0,0,0,0,0,0,0,0,0,0,0,0,0,0,0,0,0,0,0],"sum_hessian":[1.521E3,7.88E2,7.33E2,7.02E2,3.1E1,6.58E2,4.4E1,1.2E1,3.2E1,3E0,9E0,1E0,2E0,7E0,2E0,6.16E2,1.72E2,1.55E2,1.7E1,1.5E1,2E0],"tree_param":{"num_deleted":"0","num_feature":"4","num_nodes":"21","size_leaf_vector":"1"}},{"base_weights":[-1.8042267E-6,1.1548126E-4,-1.3270555E-3,-9.62362E-4,1.7679144E-3],"categories":[],"categories_nodes":[],"categories_segments":[],"categories_sizes":[],"default_left":[0,0,0,0,0],"id":8,"left_children":[1,-1,3,-1,-1],"loss_changes":[4.0451757E-4,0E0,2.8865706E-4,0E0,0E0],"parents":[2147483647,0,0,2,2],"right_children":[2,-1,4,-1,-1],"split_conditions":[1.462E1,1.1548126E-4,2E0,-9.62362E-4,1.7679144E-3],"split_indices":[0,0,3,0,0],"split_type":[0,0,0,0,0],"sum_hessian":[1.521E3,1.321E3,2E2,1.86E2,1.4E1],"tree_param":{"num_deleted":"0","num_feature":"4","num_nodes":"5","size_leaf_vector":"1"}},{"base_weights":[-6.1303086E-7,4.5695488E-4,-2.6882545E-4,-8.8390615E-3,-1.2977092E-4,2.2324651E-2,-7.502548E-2,3.521485E-2,5.132205E-3,-1.5906608E-3,6.4405124E-4,-2.3173206E-3,3.0312405E-4,9.205334E-4,1.4718583E-4],"categories":[],"categories_nodes":[],"categories_segments":[],"categories_sizes":[],"default_left":[0,0,0,0,0,0,0,0,0,0,0,0,0,0,0],"id":9,"left_children":[1,9,3,5,-1,7,-1,-1,-1,11,13,-1,-1,-1,-1],"loss_changes":[1.866661E-4,2.153145E-4,3.7245124E-4,1.9052729E-2,0E0,2.062208E-3,0E0,0E0,0E0,2.38738E-4,1.8918788E-4,0E0,0E0,0E0,0E0],"parents":[2147483647,0,0,2,2,3,3,5,5,1,1,9,9,10,10],"right_children":[2,10,4,6,-1,8,-1,-1,-1,12,14,-1,-1,-1,-1],"split_conditions":[9.82E0,1.25E0,1.001E1,1.307E1,-1.2977092E-4,7.5E-1,-7.502548E-2,3.521485E-2,5.132205E-3,8.22E0,8.49E0,-2.3173206E-3,3.0312405E-4,9.205334E-4,1.4718583E-4],"split_indices":[0,3,0,1,0,2,0,0,0,0,0,0,0,0,0],"split_type":[0,0,0,0,0,0,0,0,0,0,0,0,0,0,0],"sum_hessian":[1.521E3,5.62E2,9.59E2,5E0,9.54E2,4E0,1E0,1E0,3E0,4.7E1,5.15E2,2.2E1,2.5E1,1.51E2,3.64E2],"tree_param":{"num_deleted":"0","num_feature":"4","num_nodes":"15","size_leaf_vector":"1"}},{"base_weights":[-1.2524787E-6],"categories":[],"categories_nodes":[],"categories_segments":[],"categories_sizes":[],"default_left":[0],"id":10,"left_children":[-1],"loss_changes":[0E0],"parents":[2147483647],"right_children":[-1],"split_conditions":[-7.27421E-7],"split_indices":[0],"split_type":[0],"sum_hessian":[1.521E3],"tree_param":{"num_deleted":"0","num_feature":"4","num_nodes":"1","size_leaf_vector":"1"}},{"base_weights":[-5.3708715E-7],"categories":[],"categories_nodes":[],"categories_segments":[],"categories_sizes":[],"default_left":[0],"id":11,"left_children":[-1],"loss_changes":[0E0],"parents":[2147483647],"right_children":[-1],"split_conditions":[-3.1193224E-7],"split_indices":[0],"split_type":[0],"sum_hessian":[1.521E3],"tree_param":{"num_deleted":"0","num_feature":"4","num_nodes":"1","size_leaf_vector":"1"}},{"base_weights":[-2.8292249E-7],"categories":[],"categories_nodes":[],"categories_segments":[],"categories_sizes":[],"default_left":[0],"id":12,"left_children":[-1],"loss_changes":[0E0],"parents":[2147483647],"right_children":[-1],"split_conditions":[-1.6431719E-7],"split_indices":[0],"split_type":[0],"sum_hessian":[1.521E3],"tree_param":{"num_deleted":"0","num_feature":"4","num_nodes":"1","size_leaf_vector":"1"}},{"base_weights":[-6.0263936E-8],"categories":[],"categories_nodes":[],"categories_segments":[],"categories_sizes":[],"default_left":[0],"id":13,"left_children":[-1],"loss_changes":[0E0],"parents":[2147483647],"right_children":[-1],"split_conditions":[-3.50004E-8],"split_indices":[0],"split_type":[0],"sum_hessian":[1.521E3],"tree_param":{"num_deleted":"0","num_feature":"4","num_nodes":"1","size_leaf_vector":"1"}},{"base_weights":[-6.0263936E-8],"categories":[],"categories_nodes":[],"categories_segments":[],"categories_sizes":[],"default_left":[0],"id":14,"left_children":[-1],"loss_changes":[0E0],"parents":[2147483647],"right_children":[-1],"split_conditions":[-3.50004E-8],"split_indices":[0],"split_type":[0],"sum_hessian":[1.521E3],"tree_param":{"num_deleted":"0","num_feature":"4","num_nodes":"1","size_leaf_vector":"1"}},{"base_weights":[-6.0263936E-8],"categories":[],"categories_nodes":[],"categories_segments":[],"categories_sizes":[],"default_left":[0],"id":15,"left_children":[-1],"loss_changes":[0E0],"parents":[2147483647],"right_children":[-1],"split_conditions":[-3.50004E-8],"split_indices":[0],"split_type":[0],"sum_hessian":[1.521E3],"tree_param":{"num_deleted":"0","num_feature":"4","num_nodes":"1","size_leaf_vector":"1"}},{"base_weights":[-6.0263936E-8],"categories":[],"categories_nodes":[],"categories_segments":[],"categories_sizes":[],"default_left":[0],"id":16,"left_children":[-1],"loss_changes":[0E0],"parents":[2147483647],"right_children":[-1],"split_conditions":[-3.50004E-8],"split_indices":[0],"split_type":[0],"sum_hessian":[1.521E3],"tree_param":{"num_deleted":"0","num_feature":"4","num_nodes":"1","size_leaf_vector":"1"}},{"base_weights":[-6.0263936E-8],"categories":[],"categories_nodes":[],"categories_segments":[],"categories_sizes":[],"default_left":[0],"id":17,"left_children":[-1],"loss_changes":[0E0],"parents":[2147483647],"right_children":[-1],"split_conditions":[-3.50004E-8],"split_indices":[0],"split_type":[0],"sum_hessian":[1.521E3],"tree_param":{"num_deleted":"0","num_feature":"4","num_nodes":"1","size_leaf_vector":"1"}},{"base_weights":[-6.0263936E-8],"categories":[],"categories_nodes":[],"categories_segments":[],"categories_sizes":[],"default_left":[0],"id":18,"left_children":[-1],"loss_changes":[0E0],"parents":[2147483647],"right_children":[-1],"split_conditions":[-3.50004E-8],"split_indices":[0],"split_type":[0],"sum_hessian":[1.521E3],"tree_param":{"num_deleted":"0","num_feature":"4","num_nodes":"1","size_leaf_vector":"1"}},{"base_weights":[-6.0263936E-8],"categories":[],"categories_nodes":[],"categories_segments":[],"categories_sizes":[],"default_left":[0],"id":19,"left_children":[-1],"loss_changes":[0E0],"parents":[2147483647],"right_children":[-1],"split_conditions":[-3.50004E-8],"split_indices":[0],"split_type":[0],"sum_hessian":[1.521E3],"tree_param":{"num_deleted":"0","num_feature":"4","num_nodes":"1","size_leaf_vector":"1"}},{"base_weights":[-6.0263936E-8],"categories":[],"categories_nodes":[],"categories_segments":[],"categories_sizes":[],"default_left":[0],"id":20,"left_children":[-1],"loss_changes":[0E0],"parents":[2147483647],"right_children":[-1],"split_conditions":[-3.50004E-8],"split_indices":[0],"split_type":[0],"sum_hessian":[1.521E3],"tree_param":{"num_deleted":"0","num_feature":"4","num_nodes":"1","size_leaf_vector":"1"}},{"base_weights":[-6.0263936E-8],"categories":[],"categories_nodes":[],"categories_segments":[],"categories_sizes":[],"default_left":[0],"id":21,"left_children":[-1],"loss_changes":[0E0],"parents":[2147483647],"right_children":[-1],"split_conditions":[-3.50004E-8],"split_indices":[0],"split_type":[0],"sum_hessian":[1.521E3],"tree_param":{"num_deleted":"0","num_feature":"4","num_nodes":"1","size_leaf_vector":"1"}}]},"name":"gbtree"},"name":"dart","weight_drop":[1E0,1E0,1E0,1E0,1E0,1E0,1E0,1E0,1E0,1E0,1E0,1E0,1E0,1E0,1E0,1E0,1E0,1E0,1E0,1E0,1E0,1E0]},"learner_model_param":{"base_score":"2.890697E0","boost_from_average":"1","num_class":"0","num_feature":"4","num_target":"1"},"objective":{"name":"reg:squarederror","reg_loss_param":{"scale_pos_weight":"1"}}},"version":[2,0,3]}